time_s,throttle,rpm_hall,weight_g,esc_rpm,voltage_v,current_a,temp_c,mah,pos_voltage,neg_voltage,pitch_pos,pitch_neg
0.0115,114,1022,3.74,0,4.35,0.03,24,0,0.4863,-0.5081,-5.48,-5.6
0.1119,114,1021,3.84,0,4.35,0.03,24,0,0.4867,-0.5084,-5.48,-5.6
0.2122,114,1021,3.85,0,4.35,0.03,24,0,0.4867,-0.5084,-5.48,-5.59
0.3124,114,1022,3.91,0,4.35,0.03,24,0,0.4871,-0.5078,-5.48,-5.59
0.4129,114,1021,3.96,0,4.35,0.03,24,0,0.4863,-0.5074,-5.48,-5.6
0.5131,114,1021,3.93,0,4.35,0.03,24,0,0.4863,-0.5092,-5.48,-5.59
0.6134,114,1021,3.92,0,4.35,0.03,24,0,0.4857,-0.5092,-5.51,-5.59
0.7137,114,1020,4.12,0,4.35,0.03,24,0,0.4853,-0.5092,-5.51,-5.54
0.814,114,1019,4.0,0,4.35,0.03,24,0,0.4853,-0.5078,-5.55,-5.54
0.9142,114,1019,3.94,0,4.35,0.03,24,0,0.4857,-0.5092,-5.55,-5.54
1.0145,114,1020,3.87,0,4.35,0.03,24,0,0.4857,-0.5092,-5.55,-5.54
1.1147,114,1020,3.92,0,4.35,0.03,24,0,0.4853,-0.5092,-5.58,-5.54
1.2151,114,1021,3.99,0,4.35,0.03,24,0,0.4855,-0.5101,-5.57,-5.54
1.3153,114,1022,3.88,0,4.35,0.03,24,0,0.4853,-0.5101,-5.57,-5.54
1.4155,114,1022,3.87,0,4.35,0.03,24,0,0.4853,-0.51,-5.58,-5.5
1.5158,114,1020,3.79,0,4.35,0.03,24,0,0.4855,-0.508,-5.58,-5.5
1.6161,114,1020,3.97,0,4.35,0.03,24,0,0.486,-0.508,-5.57,-5.5
1.7163,114,1022,3.94,0,4.35,0.03,24,0,0.4859,-0.51,-5.57,-5.5
1.8166,114,1021,3.95,0,4.35,0.03,24,0,0.4856,-0.5095,-5.56,-5.53
1.9169,114,1022,3.99,0,4.35,0.03,24,0,0.4856,-0.5095,-5.56,-5.53
2.0171,114,1022,3.76,0,4.35,0.03,24,0,0.4859,-0.5102,-5.54,-5.53
2.1174,114,1022,3.72,0,4.35,0.03,24,0,0.4859,-0.51,-5.54,-5.5
2.2176,114,1022,3.85,0,4.35,0.03,24,0,0.486,-0.5093,-5.54,-5.53
2.3179,114,1022,3.98,0,4.35,0.03,24,0,0.4862,-0.5093,-5.54,-5.53
2.4183,114,1022,3.99,0,4.35,0.03,24,0,0.4862,-0.5093,-5.53,-5.54
2.5186,114,1022,3.98,0,4.35,0.03,24,0,0.4859,-0.5094,-5.53,-5.54
2.6188,114,1022,4.03,0,4.35,0.03,24,0,0.4859,-0.5094,-5.53,-5.54
2.7191,114,1022,3.89,0,4.35,0.03,24,0,0.4862,-0.5093,-5.52,-5.54
2.8193,114,1022,3.86,0,4.35,0.03,24,0,0.4868,-0.5083,-5.52,-5.54
2.9196,114,1022,3.89,0,4.35,0.03,24,0,0.4868,-0.5077,-5.52,-5.54
3.0198,114,1022,3.75,0,4.35,0.03,24,0,0.4842,-0.5082,-5.52,-5.59
3.12,114,1021,3.84,0,4.35,0.03,24,0,0.4842,-0.5074,-5.52,-5.6
3.2203,114,1022,3.88,0,4.35,0.03,24,0,0.4842,-0.5074,-5.66,-5.63
3.3205,114,1024,3.9,0,4.35,0.03,24,0,0.4842,-0.5082,-5.66,-5.63
3.4208,114,1024,3.91,0,4.35,0.03,24,0,0.485,-0.5082,-5.66,-5.6
3.5211,114,1022,3.93,0,4.35,0.03,24,0,0.4858,-0.5081,-5.66,-5.6
3.6213,114,1022,3.81,0,4.35,0.03,24,0,0.4858,-0.5082,-5.6,-5.6
3.7215,114,1021,3.65,0,4.35,0.03,24,0,0.4852,-0.5082,-5.59,-5.6
3.8218,114,1021,3.74,0,4.35,0.03,24,0,0.4858,-0.5082,-5.55,-5.6
3.9221,114,1021,3.76,1014,49.79,0.16,28,0,0.4858,-0.5083,-5.55,-5.6
4.0223,114,1020,3.86,1014,49.8,0.16,28,0,0.4858,-0.5081,-5.55,-5.6
4.1226,114,1020,3.87,1014,49.79,0.16,28,0,0.4858,-0.5073,-5.55,-5.6
4.2228,114,1020,3.65,1014,49.81,0.16,28,0,0.4858,-0.5066,-5.55,-5.6
4.3231,114,1022,3.8,1028,49.81,0.16,28,0,0.4858,-0.5066,-5.55,-5.65
4.4236,114,1019,3.9,1014,49.81,0.16,28,0,0.4853,-0.5066,-5.55,-5.69
4.5239,114,1021,3.86,1028,49.8,0.16,28,0,0.4837,-0.5097,-5.55,-5.69
4.6241,114,1021,3.88,1014,49.79,0.16,28,0,0.4837,-0.5066,-5.58,-5.69
4.7244,114,1023,3.86,1028,49.8,0.16,28,0,0.4847,-0.5066,-5.62,-5.69
4.8247,114,1021,3.76,1014,49.79,0.16,28,0,0.4847,-0.5086,-5.62,-5.69
4.9249,114,1021,3.7,1014,49.81,0.16,28,0,0.485,-0.509,-5.62,-5.58
5.0252,114,1022,3.79,1014,49.79,0.16,28,0,0.4859,-0.5094,-5.62,-5.58
5.1254,114,1021,3.94,1014,49.79,0.16,28,0,0.4859,-0.5094,-5.6,-5.55
5.2256,114,1022,3.98,1028,49.79,0.16,28,0,0.4859,-0.509,-5.54,-5.55
5.326,114,1022,3.92,1028,49.79,0.16,28,0,0.4867,-0.509,-5.54,-5.55
5.4263,114,1022,3.73,1014,49.79,0.16,28,0,0.4871,-0.5086,-5.54,-5.55
5.5265,114,1022,3.59,1014,49.8,0.16,28,0,0.4871,-0.5086,-5.48,-5.55
5.6268,114,1021,3.77,1014,49.8,0.19,28,0,0.4881,-0.5086,-5.46,-5.58
5.7271,114,1021,3.92,1014,49.8,0.19,29,0,0.4881,-0.5086,-5.46,-5.58
5.8273,114,1022,4.01,1014,49.8,0.19,28,0,0.4873,-0.5085,-5.44,-5.58
5.9276,114,1022,3.72,1028,49.79,0.19,28,0,0.4867,-0.5085,-5.44,-5.58
6.0279,114,1022,3.81,1028,49.8,0.19,28,0,0.4861,-0.5086,-5.44,-5.58
6.1282,114,1020,3.85,1014,49.79,0.19,28,0,0.4858,-0.5086,-5.48,-5.58
6.2284,114,1021,3.95,1014,49.8,0.16,28,0,0.4858,-0.5077,-5.53,-5.58
6.3287,114,1020,3.88,1014,49.79,0.19,28,0,0.4856,-0.5077,-5.55,-5.58
6.429,114,1021,3.95,1014,49.8,0.16,28,0,0.4856,-0.5086,-5.55,-5.58
6.5292,114,1020,3.9,1014,49.79,0.16,28,0,0.4852,-0.5067,-5.56,-5.63
6.6294,114,1021,3.88,1014,49.8,0.16,28,0,0.4853,-0.5095,-5.56,-5.63
6.7296,114,1020,3.69,1014,49.81,0.16,28,0,0.4853,-0.5079,-5.58,-5.61
6.8298,114,1022,3.91,1028,49.79,0.16,28,0,0.4853,-0.5079,-5.58,-5.61
6.93,114,1023,3.93,1014,49.79,0.16,28,0,0.4859,-0.5079,-5.58,-5.61
7.0302,114,1023,3.81,1014,49.79,0.16,28,0,0.4859,-0.5079,-5.58,-5.61
7.1304,114,1023,3.81,1014,49.79,0.16,28,0,0.4859,-0.5083,-5.54,-5.61
7.2306,114,1021,3.73,1014,49.79,0.16,28,0,0.4855,-0.5079,-5.54,-5.61
7.3308,159,1022,3.75,1014,49.79,0.16,28,0,0.4853,-0.5079,-5.54,-5.61
7.431,159,1285,3.7,1500,49.79,0.22,28,0,0.4844,-0.5063,-5.57,-5.61
7.5312,159,1740,6.89,1800,49.79,0.28,28,0,0.4848,-0.5069,-5.58,-5.61
7.6314,159,1997,10.12,1985,49.79,0.35,28,0,0.4848,-0.5069,-5.62,-5.67
7.7316,159,2088,12.31,2085,49.79,0.38,28,0,0.4858,-0.5069,-5.62,-5.67
7.8318,159,2155,13.78,2157,49.79,0.38,28,0,0.4854,-0.5117,-5.62,-5.67
7.9319,159,2177,14.5,2185,49.78,0.38,28,0,0.4854,-0.512,-5.57,-5.67
8.0321,159,2193,15.02,2200,49.78,0.38,28,0,0.4877,-0.5117,-5.57,-5.4
8.1323,159,2196,15.69,2200,49.78,0.35,28,0,0.4859,-0.5113,-5.55,-5.4
8.2326,159,2199,16.04,2200,49.78,0.35,28,0,0.4877,-0.512,-5.54,-5.4
8.3328,159,2203,16.3,2200,49.78,0.35,28,0,0.488,-0.5118,-5.41,-5.4
8.433,159,2199,16.27,2200,49.78,0.35,28,0,0.488,-0.5122,-5.41,-5.4
8.5332,159,2203,16.2,2200,49.78,0.35,28,0,0.4898,-0.5129,-5.39,-5.39
8.6333,159,2203,16.02,2200,49.78,0.35,28,0,0.4889,-0.5138,-5.39,-5.38
8.7335,159,2201,16.0,2200,49.78,0.35,28,0,0.4888,-0.5138,-5.34,-5.34
8.8337,193,2201,16.08,2200,49.78,0.35,28,0,0.4883,-0.514,-5.34,-5.29
8.9339,193,2285,15.99,2257,49.78,0.38,28,0,0.4877,-0.5139,-5.34,-5.29
9.0341,193,2632,15.91,2600,49.78,0.45,29,0,0.4877,-0.513,-5.37,-5.29
9.1344,193,2793,20.74,2785,49.77,0.48,28,0,0.4883,-0.5125,-5.37,-5.29
9.2346,193,2857,24.49,2842,49.77,0.54,28,0,0.4876,-0.5098,-5.41,-5.33
9.3348,193,2863,26.9,2857,49.77,0.54,28,0,0.4873,-0.5096,-5.41,-5.36
9.435,193,2865,27.73,2871,49.77,0.54,28,1,0.4876,-0.5096,-5.42,-5.51
9.5352,193,2865,27.86,2857,49.77,0.51,28,1,0.4884,-0.5096,-5.42,-5.52
9.6353,193,2865,27.82,2871,49.77,0.51,28,1,0.4892,-0.5096,-5.42,-5.52
9.7355,193,2868,27.84,2871,49.77,0.51,28,1,0.4897,-0.5099,-5.37,-5.52
9.8357,193,2868,28.03,2857,49.77,0.51,28,1,0.4898,-0.5115,-5.31,-5.52
9.9359,193,2865,28.49,2871,49.77,0.51,28,1,0.4894,-0.5115,-5.3,-5.5
10.0361,239,2868,28.24,2871,49.77,0.51,28,1,0.4897,-0.5108,-5.28,-5.45
10.1363,239,3468,28.03,3314,49.75,0.61,28,1,0.4892,-0.5095,-5.28,-5.45
10.2365,239,3667,30.55,3657,49.75,0.7,28,1,0.4879,-0.5075,-5.3,-5.45
10.3367,239,3699,38.72,3714,49.75,0.77,28,1,0.4892,-0.5086,-5.31,-5.53
10.4369,239,3699,45.25,3714,49.74,0.83,28,1,0.4914,-0.5092,-5.31,-5.54
10.537,239,3699,46.61,3700,49.76,0.77,28,1,0.491,-0.5082,-5.31,-5.58
10.6372,239,3704,46.82,3714,49.76,0.74,28,1,0.4902,-0.508,-5.24,-5.6
10.7374,239,3704,46.38,3714,49.76,0.7,29,1,0.4902,-0.5077,-5.24,-5.6
10.8376,239,3704,46.9,3700,49.74,0.74,28,1,0.4896,-0.5078,-5.24,-5.61
10.9379,262,3704,46.95,3700,49.76,0.74,28,1,0.4921,-0.5078,-5.24,-5.62
11.0381,262,3916,46.37,3714,49.76,0.74,28,1,0.4921,-0.5049,-5.24,-5.62
11.1383,262,4043,46.66,4028,49.7,0.8,29,1,0.4948,-0.502,-5.11,-5.63
11.2385,262,4054,49.74,4057,49.72,0.83,28,1,0.4977,-0.5017,-5.11,-5.78
11.3387,262,4060,54.57,4057,49.73,0.86,28,1,0.4974,-0.5001,-4.92,-5.94
11.4389,262,4060,56.16,4071,49.72,0.9,28,1,0.4974,-0.499,-4.74,-5.96
11.5392,262,4054,57.14,4071,49.73,0.83,28,1,0.4991,-0.4992,-4.74,-6.05
11.6396,262,4060,57.74,4071,49.72,0.83,28,1,0.5,-0.4995,-4.72,-6.08
11.7398,262,4060,57.99,4057,49.73,0.8,28,1,0.4987,-0.4991,-4.65,-6.1
11.8401,302,4093,57.03,4057,49.73,0.8,28,1,0.5007,-0.4989,-4.62,-6.1
11.9404,302,4615,56.88,4342,49.7,0.9,28,1,0.5001,-0.4994,-4.56,-6.1
12.0406,302,4724,58.61,4700,49.7,1.03,29,1,0.4962,-0.4993,-4.56,-6.09
12.1409,302,4732,67.21,4742,49.72,1.09,28,1,0.4947,-0.5022,-4.65,-6.09
12.2412,302,4732,75.94,4742,49.72,1.15,28,1,0.4945,-0.5023,-4.82,-6.09
12.3414,302,4739,79.08,4742,49.71,1.09,29,1,0.4944,-0.5013,-4.93,-5.98
12.4417,302,4739,78.76,4742,49.72,1.03,28,1,0.4944,-0.5017,-4.94,-5.96
12.5419,302,4739,78.35,4757,49.72,1.06,28,1,0.4944,-0.5024,-4.95,-5.93
12.642,302,4739,78.38,4757,49.7,1.06,29,1,0.4938,-0.5013,-4.95,-5.96
12.7423,330,4739,78.2,4742,49.72,1.03,29,1,0.4946,-0.5013,-4.95,-5.98
12.8425,330,5059,78.71,4757,49.72,1.03,28,1,0.4943,-0.5032,-4.95,-5.96
12.9427,330,5236,79.0,5200,49.68,1.22,28,1,0.4915,-0.5032,-4.95,-5.92
13.0428,330,5245,81.46,5271,49.7,1.25,28,1,0.4905,-0.5037,-4.99,-5.87
13.143,330,5254,95.0,5257,49.7,1.32,28,1,0.4929,-0.5046,-5.05,-5.87
13.2432,330,5245,96.84,5242,49.7,1.32,28,1,0.4898,-0.5074,-5.15,-5.85
13.3434,330,5245,97.37,5257,49.71,1.19,28,1,0.4898,-0.5084,-5.22,-5.8
13.4435,330,5254,96.39,5271,49.72,1.22,29,1,0.4923,-0.5065,-5.22,-5.69
13.5437,330,5245,96.87,5242,49.71,1.22,29,2,0.4931,-0.506,-5.09,-5.69
13.6439,330,5245,96.52,5257,49.7,1.22,28,2,0.4918,-0.507,-5.13,-5.66
13.744,353,5464,96.09,5285,49.71,1.19,29,2,0.4913,-0.507,-5.13,-5.66
13.8443,353,5597,97.27,5585,49.69,1.28,29,2,0.4896,-0.511,-5.13,-5.66
13.9445,353,5597,106.17,5614,49.68,1.35,28,2,0.4868,-0.5123,-5.16,-5.66
14.0446,353,5607,111.62,5600,49.7,1.35,29,2,0.4884,-0.512,-5.28,-5.44
14.1448,353,5607,109.51,5614,49.7,1.41,29,2,0.4895,-0.5136,-5.29,-5.39
14.245,353,5607,108.09,5628,49.68,1.35,29,2,0.4901,-0.5132,-5.29,-5.37
14.3451,353,5597,107.94,5642,49.69,1.32,29,2,0.4901,-0.511,-5.29,-5.37
14.4453,353,5597,108.1,5628,49.67,1.35,28,2,0.4901,-0.5107,-5.25,-5.39
14.5455,353,5597,108.58,5600,49.68,1.32,29,2,0.488,-0.5113,-5.25,-5.43
14.6456,376,5747,109.51,5614,49.7,1.35,28,2,0.4887,-0.5115,-5.25,-5.43
14.7458,376,5906,110.83,5871,49.67,1.41,29,2,0.4909,-0.5107,-5.25,-5.44
14.846,376,5929,116.1,5928,49.7,1.44,29,2,0.4897,-0.51,-5.28,-5.46
14.9462,376,5929,121.13,5942,49.69,1.48,29,2,0.4926,-0.51,-5.28,-5.46
15.0463,376,5929,122.67,5942,49.7,1.51,29,2,0.4914,-0.5086,-5.19,-5.5
15.1465,376,5929,124.93,5971,49.7,1.48,30,2,0.4892,-0.5086,-5.19,-5.5
15.2467,376,5941,124.9,5928,49.68,1.48,29,2,0.4912,-0.5102,-5.17,-5.5
15.3469,376,5929,123.67,5942,49.69,1.44,30,2,0.4881,-0.5093,-5.17,-5.54
15.447,376,5941,123.41,5942,49.69,1.41,29,2,0.49,-0.5098,-5.25,-5.54
15.5472,376,5929,124.76,5971,49.69,1.48,29,2,0.4891,-0.5108,-5.31,-5.51
15.6477,398,5952,123.84,5957,49.7,1.44,30,2,0.494,-0.5109,-5.25,-5.49
15.7479,398,6237,121.9,6100,49.64,1.54,29,2,0.4955,-0.5043,-5.25,-5.51
15.848,398,6250,122.44,6242,49.65,1.6,29,2,0.4939,-0.5027,-4.98,-5.51
15.9482,398,6263,131.17,6300,49.66,1.64,30,2,0.4972,-0.5047,-4.98,-5.79
16.0484,398,6263,138.67,6285,49.66,1.7,29,2,0.4942,-0.5037,-4.96,-5.81
16.1485,398,6250,140.88,6300,49.66,1.73,30,2,0.494,-0.5019,-4.96,-5.85
16.2487,398,6250,142.17,6257,49.65,1.64,30,2,0.4938,-0.5041,-4.98,-5.85
16.3488,398,6250,138.67,6285,49.65,1.6,30,2,0.4936,-0.5036,-4.98,-5.85
16.449,398,6250,137.81,6257,49.66,1.64,29,2,0.4934,-0.5034,-4.99,-5.85
16.5492,398,6263,139.57,6300,49.66,1.67,29,2,0.4923,-0.5035,-5.0,-5.86
16.6493,398,6250,139.09,6257,49.67,1.64,30,3,0.4922,-0.5028,-5.02,-5.86
16.7495,398,6250,139.38,6271,49.67,1.6,30,3,0.4942,-0.5038,-5.02,-5.86
16.8496,398,6250,139.18,6300,49.66,1.6,30,3,0.4932,-0.5049,-5.03,-5.86
16.9498,398,6250,139.14,6271,49.67,1.57,29,3,0.4932,-0.5037,-5.03,-5.85
17.05,421,6263,138.6,6285,49.66,1.54,30,3,0.4944,-0.5022,-5.03,-5.85
17.1502,421,6579,137.63,6285,49.66,1.57,30,3,0.4969,-0.5015,-4.96,-5.85
17.2505,421,6623,140.57,6657,49.65,1.7,30,3,0.4936,-0.5012,-5.0,-5.93
17.3508,421,6623,150.0,6642,49.66,1.77,29,3,0.4908,-0.5002,-5.0,-5.97
17.451,421,6623,155.13,6642,49.67,1.8,30,3,0.4912,-0.5008,-5.0,-5.99
17.5514,421,6623,155.08,6585,49.66,1.83,30,3,0.4907,-0.5028,-5.17,-5.99
17.6518,421,6623,155.09,6628,49.65,1.77,30,3,0.4907,-0.504,-5.2,-5.99
17.752,421,6623,153.57,6628,49.66,1.73,30,3,0.4926,-0.5017,-5.2,-5.96
17.8531,421,6623,152.68,6628,49.66,1.7,30,3,0.4927,-0.5014,-5.17,-5.96
17.9534,421,6623,153.93,6628,49.64,1.7,30,3,0.4947,-0.5009,-5.07,-5.96
18.0536,438,6623,156.85,6628,49.64,1.7,30,3,0.4922,-0.5021,-5.07,-5.96
18.1538,438,6897,158.63,6957,49.62,1.86,30,3,0.4944,-0.5004,-5.07,-5.97
18.2541,438,6928,158.38,6971,49.63,1.86,30,3,0.4919,-0.5007,-5.07,-6.0
18.3544,438,6928,161.86,6971,49.63,1.86,30,3,0.4935,-0.5016,-5.01,-6.0
18.4546,438,6928,168.76,6957,49.65,1.96,30,3,0.4932,-0.5024,-5.03,-5.96
18.5549,438,6928,170.73,6957,49.66,1.86,30,4,0.4935,-0.5023,-5.01,-5.96
18.6551,438,6928,172.08,6985,49.62,1.93,30,4,0.492,-0.5031,-5.03,-5.92
18.7553,438,6928,173.85,6928,49.65,1.89,30,4,0.4927,-0.4994,-5.03,-5.92
18.8555,438,6928,174.03,6900,49.65,1.86,30,4,0.4921,-0.5001,-5.07,-5.92
18.9557,438,6928,174.87,6900,49.64,1.86,30,4,0.491,-0.4994,-5.11,-6.05
19.0559,461,7009,173.98,7000,49.65,1.86,30,4,0.4931,-0.5013,-5.11,-6.05
19.1561,461,7229,173.82,7257,49.61,2.02,30,4,0.4911,-0.4976,-5.11,-6.09
19.2563,461,7264,172.25,7300,49.6,2.06,30,4,0.4943,-0.4959,-5.11,-6.09
19.3566,461,7246,176.86,7271,49.62,2.09,30,4,0.4935,-0.4987,-5.04,-6.12
19.457,461,7246,185.46,7300,49.61,2.12,30,4,0.4934,-0.4964,-5.02,-6.18
19.5572,461,7264,186.4,7285,49.63,2.02,30,5,0.4925,-0.4982,-5.02,-6.18
19.6574,461,7264,184.73,7257,49.64,1.99,30,5,0.4937,-0.4972,-5.01,-6.21
19.7576,461,7264,185.06,7257,49.62,2.02,30,5,0.4935,-0.4965,-5.01,-6.21
19.8578,478,7264,185.76,7471,49.55,2.09,30,5,0.4912,-0.4979,-5.02,-6.21
19.958,478,7538,184.23,7514,49.58,2.15,30,5,0.4928,-0.4957,-5.06,-6.21
20.0583,478,7538,184.61,7571,49.61,2.18,30,5,0.4938,-0.494,-5.01,-6.25
20.1585,478,7538,188.48,7500,49.62,2.22,30,5,0.4941,-0.4933,-5.01,-6.29
20.2587,478,7538,194.98,7500,49.62,2.25,30,5,0.4941,-0.4927,-4.99,-6.38
20.359,478,7538,195.34,7571,49.6,2.18,30,5,0.4936,-0.4946,-4.99,-6.38
20.4593,478,7538,193.43,7542,49.6,2.18,30,5,0.4922,-0.4948,-4.99,-6.38
20.5595,478,7538,194.96,7528,49.61,2.18,30,5,0.4922,-0.4928,-5.0,-6.42
20.6597,478,7538,198.21,7557,49.62,2.22,30,5,0.4916,-0.4935,-5.1,-6.41
20.7599,478,7538,200.08,7557,49.61,2.18,30,5,0.4921,-0.4943,-5.1,-6.37
20.8601,501,7673,199.42,7714,49.58,2.22,30,5,0.4928,-0.4914,-5.1,-6.41
20.9604,501,7895,200.21,7928,49.59,2.31,30,5,0.4953,-0.4845,-5.1,-6.45
21.0606,501,7916,200.85,7971,49.59,2.38,30,5,0.4999,-0.4841,-5.06,-6.53
21.1608,501,7916,220.54,7942,49.58,2.41,30,5,0.4975,-0.4839,-4.89,-6.91
21.261,501,7916,227.4,7928,49.58,2.47,30,5,0.5002,-0.4888,-4.73,-6.91
21.3612,501,7916,231.89,7971,49.58,2.38,30,5,0.4997,-0.4853,-4.58,-6.91
21.4615,501,7916,232.25,7971,49.59,2.35,30,5,0.4978,-0.4848,-4.58,-6.89
21.5618,501,7916,230.77,7928,49.58,2.38,30,5,0.4986,-0.4857,-4.66,-6.87
21.662,524,7916,231.07,7985,49.61,2.38,30,6,0.4989,-0.4835,-4.63,-6.87
21.7622,524,8264,231.73,8300,49.55,2.51,30,6,0.4949,-0.4825,-4.66,-6.89
21.8624,524,8287,230.9,8342,49.57,2.57,30,6,0.4949,-0.483,-4.71,-6.97
21.9626,524,8287,239.28,8257,49.58,2.64,30,6,0.4927,-0.4823,-4.91,-6.99
22.0628,524,8310,242.36,8300,49.59,2.67,30,6,0.49,-0.4799,-4.91,-7.02
22.163,524,8287,242.41,8285,49.57,2.6,30,6,0.4921,-0.4846,-5.07,-7.02
22.2632,524,8287,243.22,8300,49.56,2.57,30,6,0.4902,-0.483,-5.11,-6.99
22.3635,524,8287,248.33,8300,49.57,2.57,31,6,0.491,-0.4812,-5.18,-7.03
22.4637,524,8287,248.63,8342,49.59,2.57,30,6,0.495,-0.483,-5.18,-6.99
22.5639,524,8310,251.8,8300,49.58,2.57,30,6,0.492,-0.4813,-5.11,-6.99
22.6641,524,8287,245.9,8300,49.59,2.6,30,7,0.4933,-0.4807,-5.11,-7.09
22.7643,541,8287,246.65,8342,49.58,2.57,31,7,0.4939,-0.4821,-5.02,-7.09
22.8645,541,8547,247.11,8557,49.58,2.6,30,7,0.494,-0.4764,-4.98,-7.09
22.9647,541,8547,247.18,8528,49.54,2.67,31,7,0.4911,-0.476,-5.02,-7.12
23.065,541,8547,250.29,8571,49.56,2.67,30,7,0.4926,-0.48,-5.02,-7.16
23.1652,541,8547,257.82,8585,49.56,2.7,30,7,0.4918,-0.4783,-5.07,-7.25
23.2655,541,8547,257.99,8585,49.56,2.7,31,7,0.4907,-0.4781,-5.13,-7.26
23.3657,541,8547,257.17,8571,49.57,2.7,30,7,0.4896,-0.4768,-5.18,-7.26
23.4659,541,8547,258.21,8571,49.56,2.73,31,7,0.4899,-0.4745,-5.21,-7.26
23.5662,541,8547,254.98,8571,49.56,2.73,30,7,0.4937,-0.4799,-5.21,-7.26
23.6664,558,8772,254.17,8742,49.53,2.8,31,7,0.4928,-0.4772,-5.21,-7.31
23.7666,558,8850,255.82,8885,49.53,2.83,31,7,0.4882,-0.4765,-5.26,-7.34
23.8668,558,8850,259.16,8871,49.54,2.89,31,7,0.4928,-0.4749,-5.06,-7.35
23.967,558,8850,266.35,8900,49.5,2.92,31,7,0.4912,-0.4769,-5.06,-7.33
24.0672,558,8850,271.27,8842,49.55,2.89,31,7,0.4906,-0.478,-5.17,-7.33
24.1674,558,8824,272.47,8900,49.53,2.89,31,7,0.4912,-0.4775,-5.17,-7.33
24.2676,558,8850,281.82,8885,49.55,2.89,31,7,0.4911,-0.4762,-5.17,-7.33
24.3678,558,8850,280.47,8828,49.54,2.89,31,7,0.4901,-0.4756,-5.18,-7.33
24.468,558,8850,278.39,8914,49.55,2.89,31,7,0.4927,-0.4769,-5.18,-7.33
24.5682,558,8850,279.84,8928,49.53,2.86,31,7,0.4914,-0.4779,-5.17,-7.33
24.6684,558,8850,278.59,8885,49.54,2.83,31,7,0.4922,-0.477,-5.16,-7.33
24.7687,558,8850,276.14,8900,49.55,2.83,31,8,0.4905,-0.4732,-5.16,-7.33
24.8689,558,8850,276.74,8900,49.53,2.83,31,8,0.4915,-0.4763,-5.15,-7.33
24.9691,558,8850,277.52,8871,49.53,2.83,31,8,0.4928,-0.4763,-5.15,-7.36
25.0693,558,8850,282.14,8871,49.53,2.83,31,8,0.4925,-0.4759,-5.1,-7.36
25.1695,558,8850,284.64,8900,49.52,2.86,31,8,0.4914,-0.4766,-5.15,-7.36
25.2697,558,8850,288.32,8928,49.54,2.86,32,8,0.4896,-0.4758,-5.15,-7.36
25.3699,558,8850,287.78,8771,49.5,2.86,31,8,0.4926,-0.4781,-5.08,-7.36
25.4701,558,8850,283.33,8900,49.51,2.86,31,8,0.4909,-0.4778,-5.16,-7.35
25.5703,558,8850,282.09,8800,49.52,2.86,31,8,0.4918,-0.4771,-5.16,-7.32
25.6706,558,8850,283.68,8928,49.51,2.86,31,8,0.4931,-0.4771,-5.13,-7.32
25.7708,558,8850,284.18,8871,49.51,2.86,31,9,0.4902,-0.4764,-5.13,-7.32
25.871,558,8850,283.08,8914,49.51,2.83,32,9,0.4929,-0.4757,-5.13,-7.32
25.9712,558,8850,283.5,8785,49.54,2.83,32,9,0.4914,-0.4779,-5.13,-7.32
26.0714,558,8824,287.23,8800,49.51,2.83,31,9,0.491,-0.4777,-5.16,-7.32
26.1716,558,8850,286.2,8871,49.51,2.86,32,9,0.4922,-0.4799,-5.16,-7.29
26.2718,558,8850,283.62,8857,49.51,2.86,31,9,0.493,-0.4779,-5.1,-7.28
26.372,558,8850,282.97,8900,49.49,2.86,31,9,0.4922,-0.4772,-5.1,-7.28
26.4723,558,8850,282.57,8842,49.54,2.83,31,9,0.4942,-0.4778,-5.1,-7.28
26.5725,558,8850,286.16,8814,49.5,2.86,31,9,0.4926,-0.4778,-5.07,-7.28
26.6727,558,8850,287.8,8914,49.52,2.83,31,9,0.4918,-0.4788,-5.07,-7.28
26.7729,558,8850,285.42,8900,49.51,2.83,31,10,0.4893,-0.4787,-5.1,-7.28
26.8731,558,8850,283.43,8871,49.52,2.83,31,10,0.4912,-0.4789,-5.13,-7.23
26.9733,558,8850,286.02,8871,49.52,2.83,32,10,0.4907,-0.4761,-5.17,-7.23
27.0735,558,8850,287.88,8900,49.52,2.86,31,10,0.4938,-0.4745,-5.17,-7.23
27.1737,558,8850,288.97,8885,49.53,2.86,32,10,0.49,-0.4746,-5.21,-7.38
27.2739,558,8850,289.07,8885,49.5,2.83,32,10,0.4908,-0.4769,-5.2,-7.38
27.3742,558,8850,286.62,8885,49.51,2.83,31,10,0.4928,-0.4767,-5.2,-7.38
27.4744,558,8850,275.89,8900,49.51,2.83,32,10,0.4918,-0.4744,-5.13,-7.46
27.5746,558,8850,278.27,8771,49.51,2.86,31,10,0.4916,-0.4757,-5.14,-7.4
27.6748,558,8850,279.34,8857,49.5,2.89,32,10,0.4922,-0.4761,-5.13,-7.38
27.775,558,8850,277.64,8857,49.53,2.89,32,10,0.4917,-0.4792,-5.13,-7.38
27.8752,558,8850,276.56,8871,49.5,2.92,32,10,0.4925,-0.4772,-5.13,-7.38
27.9754,558,8850,275.98,8842,49.51,2.89,32,10,0.4916,-0.4765,-5.14,-7.35
28.0756,558,8850,275.14,8828,49.54,2.86,32,10,0.4945,-0.4763,-5.1,-7.35
28.1759,558,8850,274.05,8871,49.52,2.83,32,10,0.4912,-0.476,-5.14,-7.35
28.2761,558,8850,278.48,8871,49.51,2.83,32,10,0.4903,-0.4746,-5.14,-7.36
28.3763,558,8850,275.58,8885,49.53,2.8,32,10,0.4913,-0.4764,-5.16,-7.36
28.4765,558,8850,277.62,8914,49.5,2.8,32,10,0.493,-0.4781,-5.16,-7.36
28.5767,558,8850,276.64,8900,49.51,2.83,33,10,0.4918,-0.4782,-5.16,-7.36
28.6769,558,8850,275.13,8800,49.51,2.83,32,10,0.494,-0.4755,-5.13,-7.36
28.7771,558,8850,278.59,8871,49.51,2.83,32,10,0.4924,-0.4748,-5.09,-7.36
28.8779,558,8850,279.43,8928,49.52,2.83,33,11,0.495,-0.4763,-5.05,-7.36
28.9781,558,8850,279.2,8871,49.51,2.86,33,11,0.4911,-0.4783,-5.09,-7.36
29.0783,558,8850,288.68,8842,49.51,2.86,32,11,0.4925,-0.4774,-5.08,-7.36
29.1785,558,8850,291.99,8871,49.51,2.86,33,11,0.4923,-0.4774,-5.09,-7.3
29.2788,558,8850,290.2,8885,49.5,2.86,33,11,0.491,-0.4744,-5.09,-7.3
29.379,558,8850,284.52,8885,49.5,2.86,33,11,0.493,-0.4759,-5.09,-7.3
29.4792,558,8850,282.07,8871,49.52,2.83,32,11,0.4926,-0.476,-5.08,-7.38
29.5794,558,8850,286.03,8885,49.52,2.86,33,11,0.4928,-0.4772,-5.07,-7.38
29.6796,558,8850,286.72,8814,49.51,2.86,33,11,0.4938,-0.4766,-5.06,-7.38
29.7798,558,8850,285.09,8900,49.51,2.83,32,11,0.4924,-0.4764,-5.06,-7.36
29.88,558,8850,282.28,8814,49.51,2.86,33,12,0.4928,-0.4758,-5.06,-7.36
29.9805,609,9231,279.34,9257,49.4,3.09,33,12,0.4912,-0.4741,-5.06,-7.36
30.0807,609,9615,276.47,9585,49.43,3.31,33,12,0.4886,-0.4655,-5.09,-7.39
30.181,609,9646,287.34,9700,49.46,3.44,33,12,0.4875,-0.465,-5.17,-7.49
30.2812,609,9646,312.26,9657,49.45,3.54,32,12,0.4877,-0.4647,-5.35,-7.96
30.3814,609,9646,328.03,9657,49.48,3.63,33,12,0.4859,-0.4643,-5.41,-7.99
30.4816,609,9646,329.02,9757,49.49,3.38,34,12,0.4842,-0.4651,-5.43,-7.99
30.5819,609,9646,329.91,9671,49.47,3.31,33,12,0.486,-0.4662,-5.53,-7.99
30.6821,609,9646,334.38,9771,49.46,3.34,33,12,0.4837,-0.4674,-5.54,-7.98
30.7824,609,9646,334.16,9628,49.48,3.31,33,12,0.486,-0.4667,-5.54,-7.92
30.8826,643,10067,338.86,9985,49.4,3.54,33,13,0.4807,-0.465,-5.66,-7.92
30.9828,643,10169,340.57,10214,49.41,3.67,33,13,0.4818,-0.4611,-5.69,-7.92
31.0831,643,10169,348.43,10200,49.46,3.67,33,13,0.4838,-0.4572,-5.69,-7.99
31.1833,643,10169,364.08,10157,49.44,3.73,33,13,0.4827,-0.4611,-5.76,-8.21
31.2835,643,10169,371.21,10314,49.44,3.7,33,13,0.4814,-0.4622,-5.83,-8.21
31.3837,643,10169,372.91,10157,49.43,3.63,33,13,0.4825,-0.4583,-5.78,-8.21
31.4839,643,10169,377.29,10242,49.41,3.67,33,13,0.4823,-0.461,-5.78,-8.21
31.5841,643,10169,377.09,10285,49.42,3.7,34,13,0.4822,-0.4594,-5.79,-8.21
31.6843,643,10169,370.07,10214,49.44,3.6,33,13,0.4812,-0.4621,-5.8,-8.21
31.7847,643,10169,371.42,10257,49.43,3.7,33,13,0.4809,-0.4611,-5.8,-8.21
31.8849,643,10169,374.38,10285,49.44,3.67,33,14,0.4815,-0.4599,-5.85,-8.21
31.9851,643,10169,374.03,10242,49.45,3.6,33,14,0.4822,-0.4608,-5.85,-8.22
32.0854,643,10169,374.88,10271,49.42,3.7,33,14,0.4841,-0.4609,-5.85,-8.22
32.1857,643,10169,377.3,10157,49.44,3.63,34,14,0.4837,-0.4603,-5.8,-8.22
32.2859,643,10169,384.01,10128,49.45,3.67,33,14,0.4819,-0.4611,-5.8,-8.22
32.3861,643,10169,380.97,10271,49.41,3.7,34,14,0.4819,-0.4601,-5.8,-8.22
32.4863,643,10169,377.73,10171,49.4,3.73,34,14,0.4829,-0.4615,-5.75,-8.22
32.5865,643,10169,376.19,10142,49.4,3.76,34,14,0.4827,-0.4615,-5.76,-8.21
32.6876,643,10169,380.2,10271,49.41,3.73,34,14,0.4824,-0.4598,-5.78,-8.21
32.7878,643,10169,385.33,10171,49.41,3.79,34,14,0.4836,-0.4603,-5.76,-8.25
32.8883,643,10169,385.45,10271,49.42,3.83,34,15,0.483,-0.4607,-5.75,-8.23
32.9886,643,10169,382.16,10242,49.42,3.83,34,15,0.4837,-0.4589,-5.74,-8.25
33.0888,643,10169,381.63,10071,49.41,3.83,34,15,0.4824,-0.4619,-5.74,-8.25
33.189,643,10169,382.94,10228,49.43,3.79,34,15,0.4823,-0.4617,-5.74,-8.23
33.2892,643,10169,391.31,10185,49.44,3.7,34,15,0.4823,-0.46,-5.78,-8.23
33.3894,643,10169,389.13,10214,49.45,3.63,34,15,0.4817,-0.4611,-5.79,-8.21
33.4896,643,10204,385.86,10257,49.45,3.54,34,15,0.4825,-0.4617,-5.79,-8.17
33.5898,643,10169,384.71,10228,49.42,3.44,34,15,0.4825,-0.4606,-5.79,-8.21
33.69,643,10169,378.43,10228,49.43,3.54,34,15,0.4829,-0.4611,-5.78,-8.21
33.7904,643,10169,374.45,10185,49.4,3.57,34,15,0.4819,-0.4626,-5.78,-8.21
33.8906,643,10169,375.57,10157,49.44,3.6,34,15,0.4841,-0.46,-5.78,-8.21
33.9908,643,10169,377.73,10271,49.42,3.63,34,16,0.4846,-0.4594,-5.75,-8.23
34.091,643,10169,377.9,10228,49.42,3.67,34,16,0.4825,-0.4604,-5.75,-8.24
34.1912,643,10169,381.73,10300,49.41,3.67,34,16,0.4807,-0.461,-5.78,-8.24
34.2915,643,10169,387.1,10214,49.42,3.7,34,16,0.4816,-0.4609,-5.78,-8.24
34.3917,633,10135,385.13,10100,49.41,3.73,34,16,0.4837,-0.4614,-5.78,-8.22
34.4919,633,10033,382.31,10071,49.45,3.57,34,16,0.484,-0.4608,-5.78,-8.22
34.5921,623,9967,376.39,9985,49.43,3.47,34,16,0.4839,-0.4639,-5.69,-8.21
34.6924,623,9868,370.33,9842,49.42,3.41,35,16,0.4843,-0.4661,-5.68,-8.19
34.7926,613,9804,359.23,9842,49.45,3.34,35,16,0.4851,-0.4671,-5.67,-8.05
34.8928,613,9677,351.05,9771,49.46,3.28,35,16,0.483,-0.4654,-5.67,-7.97
34.9931,603,9646,340.97,9757,49.45,3.28,35,17,0.484,-0.4661,-5.67,-7.93
35.0933,603,9554,340.25,9614,49.46,3.21,35,17,0.4842,-0.465,-5.66,-7.93
35.1935,593,9494,336.27,9628,49.45,3.15,34,17,0.4874,-0.4671,-5.66,-7.93
35.2937,593,9434,330.47,9400,49.48,3.15,34,17,0.489,-0.469,-5.66,-7.93
35.3939,583,9346,324.04,9457,49.45,3.15,35,17,0.4914,-0.4698,-5.44,-7.87
35.4941,583,9259,321.1,9314,49.51,3.09,34,17,0.4888,-0.4708,-5.34,-7.77
35.5948,573,9174,318.35,9285,49.47,3.05,35,17,0.4891,-0.4711,-5.32,-7.72
35.695,573,9119,315.14,9142,49.48,2.92,34,17,0.4901,-0.4718,-5.32,-7.67
35.7952,563,9091,305.09,9185,49.49,2.83,35,17,0.4929,-0.474,-5.25,-7.65
35.8954,563,8982,299.76,8985,49.51,2.8,35,17,0.4922,-0.4719,-5.25,-7.61
35.9956,553,8955,297.46,9000,49.48,2.76,34,18,0.4944,-0.4748,-5.1,-7.61
36.0958,553,8798,288.74,8828,49.49,2.73,35,18,0.4935,-0.4747,-5.05,-7.49
36.196,543,8772,276.5,8857,49.48,2.73,35,18,0.4951,-0.4757,-5.01,-7.45
36.2962,543,8621,273.73,8657,49.49,2.7,35,18,0.4947,-0.4751,-4.95,-7.45
36.3964,533,8571,270.95,8657,49.49,2.67,35,18,0.4974,-0.4755,-4.93,-7.43
36.4966,533,8451,270.58,8542,49.5,2.64,35,18,0.4943,-0.4766,-4.93,-7.41
36.5968,523,8427,263.15,8542,49.5,2.64,35,18,0.4958,-0.4805,-4.9,-7.4
36.6973,523,8310,257.71,8328,49.52,2.51,35,18,0.4971,-0.4798,-4.85,-7.35
36.7975,513,8242,257.07,8300,49.5,2.54,35,18,0.4949,-0.4806,-4.85,-7.17
36.8977,513,8152,253.14,8171,49.5,2.47,35,18,0.4972,-0.4811,-4.85,-7.13
36.9979,503,8043,245.62,8100,49.51,2.41,35,18,0.496,-0.4816,-4.84,-7.13
37.0981,503,7979,240.69,8014,49.51,2.31,35,18,0.4995,-0.4797,-4.76,-7.13
37.1983,493,7895,235.92,7971,49.51,2.28,35,18,0.5023,-0.4798,-4.75,-7.13
37.2985,493,7812,235.79,7814,49.52,2.25,35,18,0.506,-0.4815,-4.59,-7.1
37.399,483,7712,235.05,7785,49.53,2.18,35,18,0.5036,-0.4839,-4.4,-7.08
37.4992,483,7634,228.01,7657,49.54,2.18,35,18,0.5016,-0.4865,-4.4,-7.08
37.5997,473,7634,220.61,7642,49.51,2.18,35,18,0.4999,-0.488,-4.4,-6.94
37.6999,473,7481,214.87,7500,49.56,2.12,35,18,0.5002,-0.4893,-4.45,-6.8
37.8001,463,7463,208.09,7471,49.56,2.09,35,18,0.5012,-0.4874,-4.47,-6.75
37.9004,463,7317,205.04,7357,49.57,2.06,35,18,0.5008,-0.4915,-4.5,-6.72
38.0006,453,7299,200.78,7300,49.55,1.96,36,19,0.4982,-0.4928,-4.54,-6.64
38.1008,453,7160,197.48,7228,49.57,1.93,35,19,0.4985,-0.4937,-4.54,-6.52
38.201,443,7160,194.33,7171,49.56,1.89,34,19,0.4969,-0.494,-4.66,-6.45
38.3012,443,6961,191.05,7028,49.58,1.86,36,19,0.4993,-0.4954,-4.66,-6.4
38.4014,433,6928,186.54,6942,49.54,1.86,35,19,0.4983,-0.4951,-4.68,-6.38
38.5017,433,6849,179.12,6857,49.58,1.8,35,19,0.4982,-0.4983,-4.68,-6.32
38.6019,423,6818,171.75,6857,49.56,1.77,35,19,0.4994,-0.4957,-4.68,-6.31
38.7021,423,6682,170.22,6742,49.58,1.7,36,19,0.5002,-0.4944,-4.61,-6.31
38.8023,413,6608,163.97,6685,49.58,1.67,36,19,0.5009,-0.4961,-4.6,-6.29
38.9026,413,6536,161.03,6571,49.58,1.64,36,19,0.4997,-0.4985,-4.58,-6.27
39.0028,403,6466,158.78,6557,49.57,1.6,36,19,0.499,-0.499,-4.58,-6.27
39.103,403,6356,154.24,6400,49.61,1.57,36,19,0.4989,-0.5005,-4.58,-6.14
39.2032,393,6289,151.17,6400,49.6,1.57,35,19,0.501,-0.4984,-4.58,-6.14
39.3034,393,6211,145.83,6228,49.61,1.48,36,19,0.499,-0.4982,-4.63,-6.14
39.4036,383,6135,141.54,6271,49.6,1.51,35,19,0.5009,-0.4983,-4.63,-6.14
39.5038,383,6098,137.4,6100,49.6,1.48,36,19,0.4983,-0.5006,-4.63,-6.14
39.6041,383,6073,134.16,6128,49.62,1.48,36,19,0.4979,-0.5018,-4.63,-6.14
39.7043,373,5894,132.89,5900,49.62,1.44,36,19,0.4965,-0.5064,-4.68,-6.02
39.8045,373,5882,128.83,5900,49.62,1.41,36,19,0.495,-0.5058,-4.7,-5.95
39.9047,363,5769,123.47,5800,49.61,1.38,36,19,0.4948,-0.5062,-4.8,-5.73
40.0049,363,5758,121.45,5785,49.62,1.35,36,19,0.4941,-0.5064,-4.91,-5.71
40.1051,353,5629,119.73,5685,49.62,1.32,35,20,0.4933,-0.5092,-4.92,-5.7
40.2054,353,5618,116.28,5685,49.61,1.32,36,20,0.493,-0.5079,-4.97,-5.7
40.3056,343,5474,113.74,5485,49.63,1.28,35,20,0.4939,-0.5049,-4.98,-5.7
40.4058,343,5464,111.08,5500,49.63,1.25,35,20,0.4958,-0.5068,-4.98,-5.68
40.5061,333,5319,109.41,5314,49.65,1.22,36,20,0.4974,-0.5053,-4.98,-5.68
40.6063,333,5300,107.44,5314,49.62,1.19,36,20,0.498,-0.5049,-4.85,-5.76
40.7065,323,5181,104.73,5200,49.65,1.15,36,20,0.4978,-0.5055,-4.74,-5.76
40.8068,323,5137,102.71,5171,49.64,1.12,36,20,0.4974,-0.5043,-4.74,-5.76
40.907,313,5025,98.15,5028,49.62,1.06,35,20,0.4994,-0.5034,-4.71,-5.78
41.0072,313,4959,91.82,5014,49.64,1.03,35,20,0.5011,-0.4999,-4.7,-5.81
41.1074,303,4831,89.24,4857,49.64,0.99,36,20,0.5011,-0.501,-4.6,-5.86
41.2076,303,4769,87.33,4842,49.64,0.96,36,20,0.5006,-0.5011,-4.52,-5.99
41.3078,293,4615,85.33,4614,49.67,0.93,36,20,0.5005,-0.5009,-4.52,-6.0
41.4082,293,4601,81.31,4614,49.66,0.96,36,20,0.5005,-0.5002,-4.52,-6.0
41.5084,283,4425,76.56,4457,49.66,0.9,36,20,0.5031,-0.4968,-4.52,-6.0
41.6086,283,4412,74.18,4428,49.66,0.9,35,20,0.5041,-0.496,-4.52,-6.04
41.7089,273,4231,71.13,4257,49.66,0.86,36,20,0.5069,-0.4924,-4.34,-6.23
41.8091,273,4225,67.7,4214,49.66,0.8,35,20,0.5093,-0.4911,-4.27,-6.27
41.9093,263,4093,65.78,4114,49.66,0.8,35,20,0.5093,-0.4899,-4.08,-6.47
42.0095,263,4087,63.24,4085,49.67,0.77,36,20,0.51,-0.488,-3.91,-6.54
42.1097,253,3953,61.05,3957,49.67,0.77,35,20,0.5058,-0.4921,-3.91,-6.54
42.2099,253,3942,58.84,3957,49.66,0.77,36,20,0.5057,-0.4957,-3.91,-6.54
42.3101,243,3812,56.48,3828,49.66,0.74,35,20,0.5035,-0.4986,-4.15,-6.49
42.4104,243,3788,54.51,3800,49.66,0.7,36,20,0.5019,-0.502,-4.16,-6.29
42.5106,233,3632,52.23,3628,49.69,0.67,36,20,0.5025,-0.5027,-4.31,-6.13
42.6108,233,3606,48.79,3614,49.7,0.64,36,20,0.5019,-0.5023,-4.38,-5.94
42.7111,223,3468,47.31,3485,49.69,0.64,36,20,0.5019,-0.5023,-4.43,-5.92
42.8114,223,3444,44.73,3442,49.69,0.61,36,20,0.5018,-0.5031,-4.43,-5.92
42.9116,213,3275,41.92,3271,49.69,0.61,35,20,0.5028,-0.5046,-4.43,-5.9
43.0118,213,3229,39.76,3228,49.68,0.57,36,20,0.5018,-0.5017,-4.43,-5.92
43.112,203,3096,37.61,3085,49.68,0.54,36,20,0.5018,-0.5017,-4.43,-5.92
43.2125,203,3058,36.67,3057,49.68,0.54,35,20,0.5018,-0.5017,-4.43,-5.96
43.3127,193,2930,35.12,2928,49.7,0.51,36,20,0.5024,-0.5032,-4.43,-5.96
43.413,193,2890,31.67,2885,49.7,0.51,35,20,0.5039,-0.5047,-4.43,-5.96
43.5132,183,2757,30.08,2757,49.7,0.48,35,20,0.5022,-0.5047,-4.4,-5.87
43.6134,183,2730,28.72,2728,49.7,0.48,36,20,0.5029,-0.5043,-4.39,-5.81
43.7136,173,2600,27.38,2600,49.71,0.45,36,20,0.5029,-0.5056,-4.36,-5.79
43.8138,173,2568,25.97,2557,49.71,0.41,36,20,0.5034,-0.5043,-4.36,-5.79
43.914,163,2425,24.0,2400,49.72,0.38,36,20,0.5041,-0.5071,-4.36,-5.79
44.0143,153,2347,22.74,2342,49.72,0.38,36,20,0.5008,-0.5053,-4.36,-5.76
44.1145,153,2214,20.87,2214,49.72,0.35,36,20,0.5008,-0.5045,-4.36,-5.76
44.2147,143,2149,18.14,2142,49.72,0.32,36,21,0.5005,-0.5045,-4.5,-5.8
44.3151,143,2058,16.55,1985,49.71,0.32,36,21,0.5021,-0.5034,-4.5,-5.8
44.4154,133,1929,15.02,1914,49.71,0.28,36,21,0.5021,-0.5052,-4.5,-5.8
44.5156,133,1871,13.38,1800,49.71,0.28,36,21,0.5021,-0.5036,-4.41,-5.8
44.6158,123,1715,12.11,1714,49.71,0.25,36,21,0.5021,-0.5026,-4.41,-5.85
44.716,123,1642,10.55,1557,49.71,0.25,36,21,0.5027,-0.5023,-4.41,-5.86
44.8162,113,1496,9.52,1471,49.72,0.22,36,21,0.5017,-0.5023,-4.41,-5.91
44.9164,113,1466,8.29,1342,49.72,0.22,36,21,0.5017,-0.5019,-4.41,-5.92
45.0166,103,1274,6.33,1228,49.72,0.19,36,21,0.5016,-0.5018,-4.44,-5.92
45.1168,103,1225,5.53,1071,49.72,0.19,36,21,0.499,-0.5019,-4.44,-5.95
45.217,93,1163,4.5,885,49.72,0.16,35,21,0.499,-0.5019,-4.45,-5.95
45.3175,93,949,3.28,742,49.72,0.16,36,21,0.4979,-0.5018,-4.63,-5.95
45.4177,83,949,2.28,514,49.72,0.12,36,21,0.4979,-0.5018,-4.63,-5.95
45.518,83,858,1.55,385,49.73,0.12,36,21,0.4974,-0.5018,-4.7,-5.95
45.6182,0,858,0.6,214,49.73,0.09,35,21,0.4974,-0.5018,-4.7,-5.95
45.7184,0,858,0.21,0,49.72,0.09,36,21,0.4974,-0.5018,-4.74,-5.95
45.8186,0,682,0.15,0,49.72,0.09,36,21,0.4974,-0.435,-4.74,-5.95
45.9188,0,42254,0.17,0,49.72,0.09,36,21,-0.4199,-0.4299,-4.74,-5.95
46.019,0,35714,0.1,0,49.72,0.09,36,21,-0.4199,-0.431,-4.74,-9.65
46.1194,0,28571,0.02,0,49.72,0.09,35,21,-0.4194,-0.429,-30.0,-9.87
46.2196,0,36145,0.04,0,49.72,0.09,36,21,-0.4201,-0.4302,-30.0,-9.92
46.3201,0,24590,-0.02,0,49.74,0.09,35,21,-0.4204,-0.4297,-30.0,-9.93
46.4203,0,37500,-0.04,0,49.74,0.09,36,21,-0.4204,-0.4298,-30.0,-9.94
46.5205,0,30928,-0.01,0,49.73,0.09,35,21,-0.4193,-0.4288,-30.0,-9.94
46.6207,0,22059,0.02,0,49.73,0.09,36,21,-0.4199,-0.4301,-30.0,-9.94
46.7209,0,35294,0.23,0,49.73,0.09,36,21,-0.4202,-0.4299,-30.0,-9.94
46.8211,0,47619,-0.01,0,49.73,0.09,35,21,-0.4195,-0.4296,-30.0,-9.94
46.9213,0,28037,-0.12,0,49.73,0.09,36,21,-0.4193,-0.4282,-30.0,-9.95
47.0215,0,34091,-0.16,0,49.73,0.09,36,21,-0.4186,-0.4298,-30.0,-9.94
47.1217,0,28571,-0.14,0,49.74,0.09,35,21,-0.4193,-0.4294,-30.0,-9.95
47.2219,0,31250,-0.06,0,49.74,0.09,36,21,-0.4199,-0.43,-30.0,-9.95
47.3222,0,44118,-0.06,0,49.74,0.09,35,21,-0.4196,-0.4302,-30.0,-9.94
