time_s,throttle,rpm_hall,weight_g,esc_rpm,voltage_v,current_a,temp_c,mah,pos_voltage,neg_voltage,pitch_pos,pitch_neg
0.0672,245,15385,57.75,3814,49.68,0.74,26,41,0.0218,0.0125,-30.0,-30.0
0.1675,245,13699,58.88,3800,49.68,0.77,27,41,0.0227,0.0129,-30.0,-30.0
0.2677,245,13636,59.04,3814,49.68,0.74,27,41,0.0225,0.012,-30.0,-30.0
0.3679,245,35714,58.33,3800,49.68,0.74,26,41,0.0207,0.0124,-30.0,-30.0
0.4682,245,30303,57.66,3800,49.67,0.77,27,41,0.0216,0.0128,-30.0,-30.0
0.5684,245,28302,57.65,3800,49.67,0.74,27,41,0.0219,0.013,-30.0,-30.0
0.6688,245,32609,57.65,3800,49.67,0.77,27,41,0.0214,0.0131,-30.0,-30.0
0.769,245,32258,57.1,3800,49.7,0.77,27,41,0.0217,0.0121,-30.0,-30.0
0.8693,245,13953,57.32,3800,49.68,0.74,27,41,0.0223,0.0137,-30.0,-30.0
0.9695,245,32609,57.96,3814,49.68,0.77,27,41,0.0222,0.0137,-30.0,-30.0
1.0698,245,39474,58.17,3800,49.68,0.77,27,41,0.0221,0.0132,-30.0,-30.0
1.1701,245,12000,58.45,3800,49.68,0.74,27,41,0.0236,0.0137,-30.0,-30.0
1.2703,245,7229,57.81,3800,49.68,0.77,27,41,0.0228,0.0132,-30.0,-30.0
1.3706,245,40541,57.89,3814,49.69,0.77,27,41,0.0227,0.0129,-30.0,-30.0
1.4709,245,20000,58.02,3800,49.65,0.77,27,41,0.0219,0.0133,-30.0,-30.0
1.5719,245,27027,58.73,3800,49.65,0.77,27,41,0.0228,0.0132,-30.0,-30.0
1.6721,245,32967,58.11,3800,49.68,0.77,27,41,0.0223,0.0123,-30.0,-30.0
1.7724,245,30303,58.02,3814,49.68,0.77,27,41,0.023,0.0124,-30.0,-30.0
1.8727,245,32609,59.26,3800,49.68,0.77,27,41,0.0219,0.0128,-30.0,-30.0
1.973,245,26316,59.52,3814,49.66,0.77,27,41,0.0213,0.013,-30.0,-30.0
2.0732,245,30000,59.27,3800,49.66,0.77,27,41,0.0212,0.0122,-30.0,-30.0
2.1735,245,20000,59.15,3814,49.67,0.77,27,41,0.0216,0.0124,-30.0,-30.0
2.2737,290,21127,60.37,4371,49.63,0.9,27,41,0.0229,0.0133,-30.0,-30.0
2.3739,290,24590,70.32,4514,49.65,0.99,27,41,0.0216,0.0112,-30.0,-30.0
2.4742,290,27273,80.78,4514,49.65,1.06,27,41,0.0225,0.013,-30.0,-30.0
2.5744,290,13100,83.86,4514,49.65,1.12,27,41,0.0228,0.0118,-30.0,-30.0
2.6748,290,12146,83.73,4528,49.64,1.03,27,41,0.0233,0.0121,-30.0,-30.0
2.775,290,17143,82.75,4528,49.65,0.99,27,41,0.0229,0.0117,-30.0,-30.0
2.8752,290,41667,81.31,4514,49.67,0.99,28,41,0.0209,0.0114,-30.0,-30.0
2.9755,290,9804,81.05,4528,49.65,0.99,27,41,0.0225,0.0123,-30.0,-30.0
3.0757,341,19608,82.19,4528,49.65,0.99,27,41,0.022,0.0107,-30.0,-30.0
3.176,341,30612,83.44,4657,49.63,1.03,27,41,0.0213,0.0093,-30.0,-30.0
3.2762,341,24590,87.14,5328,49.61,1.25,27,41,0.0226,0.0133,-30.0,-30.0
3.3764,341,25862,101.32,5400,49.61,1.38,27,41,0.0227,0.01,-30.0,-30.0
3.4767,341,28571,114.86,5400,49.62,1.44,27,41,0.023,0.0082,-30.0,-30.0
3.577,341,22727,115.33,5414,49.62,1.51,27,41,0.0218,0.0101,-30.0,-30.0
3.6775,341,31250,115.56,5414,49.62,1.35,27,41,0.0233,0.0115,-30.0,-30.0
3.7777,341,37037,114.86,5442,49.63,1.32,28,41,0.0229,0.0107,-30.0,-30.0
3.8779,341,13393,114.08,5414,49.63,1.32,28,41,0.0247,0.0116,-30.0,-30.0
3.9782,341,17143,113.96,5428,49.63,1.32,28,41,0.024,0.0111,-30.0,-30.0
4.0784,341,25641,114.55,5428,49.62,1.35,28,42,0.0228,0.0111,-30.0,-30.0
4.1786,341,29703,114.57,5442,49.62,1.35,27,42,0.0221,0.0095,-30.0,-30.0
4.2789,370,26786,113.86,5428,49.62,1.35,27,42,0.0231,0.0115,-30.0,-30.0
4.3791,370,11278,114.02,5542,49.61,1.38,27,42,0.0263,0.01,-30.0,-30.0
4.4797,370,19231,123.81,5828,49.6,1.51,27,42,0.0234,0.0106,-30.0,-30.0
4.5799,370,19231,136.38,5842,49.61,1.6,28,42,0.0232,0.0112,-30.0,-30.0
4.6804,370,35714,137.14,5814,49.61,1.6,28,42,0.0219,0.0111,-30.0,-30.0
4.7806,370,18987,137.48,5814,49.61,1.64,28,42,0.0225,0.0104,-30.0,-30.0
4.8808,370,23437,138.27,5842,49.61,1.57,28,42,0.0221,0.0112,-30.0,-30.0
4.9811,370,27778,137.63,5842,49.61,1.51,28,42,0.0234,0.0128,-30.0,-30.0
5.0813,370,39474,140.32,5814,49.61,1.51,28,42,0.0234,0.0118,-30.0,-30.0
5.1816,370,26087,140.12,5800,49.6,1.54,28,42,0.0247,0.0116,-30.0,-30.0
5.2818,370,36145,138.84,5800,49.62,1.51,28,42,0.0225,0.0098,-30.0,-30.0
5.382,370,15544,138.65,5857,49.61,1.44,28,42,0.022,0.0093,-30.0,-30.0
5.4823,370,21898,138.62,5842,49.62,1.38,28,42,0.0225,0.0094,-30.0,-30.0
5.5828,370,27778,135.48,5785,49.62,1.38,28,42,0.0237,0.0101,-30.0,-30.0
5.683,370,29412,133.55,5800,49.61,1.41,27,42,0.0238,0.0124,-30.0,-30.0
5.7833,370,26087,136.58,5828,49.62,1.48,28,42,0.0234,0.0105,-30.0,-30.0
5.8835,370,25862,137.76,5814,49.62,1.51,28,42,0.0226,0.0113,-30.0,-30.0
5.9838,370,24793,136.37,5828,49.61,1.54,28,42,0.0221,0.0099,-30.0,-30.0
6.0841,370,40541,137.12,5828,49.6,1.51,27,42,0.023,0.011,-30.0,-30.0
6.1843,370,25641,136.84,5842,49.61,1.51,28,43,0.0223,0.0106,-30.0,-30.0
6.2846,370,26316,136.36,5857,49.62,1.51,28,43,0.0209,0.0096,-30.0,-30.0
6.3848,370,8547,137.1,5828,49.62,1.54,28,43,0.0253,0.0107,-30.0,-30.0
6.485,370,16484,136.96,5800,49.61,1.54,28,43,0.0245,0.0124,-30.0,-30.0
6.5853,370,29703,138.06,5842,49.62,1.54,28,43,0.0222,0.0105,-30.0,-30.0
6.6855,370,28302,139.29,5842,49.61,1.54,28,43,0.0228,0.0112,-30.0,-30.0
6.7859,370,28846,137.52,5857,49.6,1.54,28,43,0.0214,0.009,-30.0,-30.0
6.8861,370,20833,136.92,5800,49.61,1.51,28,43,0.0235,0.0107,-30.0,-30.0
6.9864,370,27523,139.06,5828,49.61,1.48,28,43,0.0234,0.0116,-30.0,-30.0
7.0866,370,36145,140.09,5814,49.61,1.44,28,43,0.0217,0.011,-30.0,-30.0
7.187,370,27523,138.66,5828,49.61,1.44,28,43,0.0224,0.0128,-30.0,-30.0
7.2873,370,36585,137.07,5814,49.59,1.48,28,43,0.0218,0.0109,-30.0,-30.0
7.3876,370,26786,135.91,5800,49.61,1.54,28,43,0.0234,0.0101,-30.0,-30.0
7.4879,370,37500,135.94,5800,49.6,1.51,28,43,0.0237,0.0099,-30.0,-30.0
7.5885,370,21277,136.34,5842,49.62,1.51,28,43,0.022,0.0116,-30.0,-30.0
7.6887,370,29126,135.06,5800,49.61,1.48,28,43,0.0251,0.0115,-30.0,-30.0
7.7889,370,8523,134.14,5828,49.6,1.44,29,43,0.0255,0.0117,-30.0,-30.0
7.8892,370,21429,135.94,5828,49.61,1.48,28,43,0.0232,0.0098,-30.0,-30.0
7.9895,370,24000,137.9,5842,49.61,1.44,29,43,0.0234,0.0113,-30.0,-30.0
8.0897,370,17241,136.98,5842,49.61,1.44,28,43,0.0224,0.0105,-30.0,-30.0
8.19,370,53571,136.4,5828,49.6,1.48,28,43,0.0217,0.0107,-30.0,-30.0
8.2902,370,15873,136.92,5800,49.61,1.51,28,43,0.0223,0.0096,-30.0,-30.0
8.3904,370,15385,137.47,5814,49.61,1.48,28,43,0.0234,0.01,-30.0,-30.0
8.4908,370,28302,135.27,5842,49.61,1.48,28,43,0.0216,0.0115,-30.0,-30.0
8.5911,370,17241,135.06,5842,49.6,1.48,28,43,0.0247,0.0104,-30.0,-30.0
8.6913,370,27523,136.74,5828,49.62,1.48,28,43,0.0231,0.0105,-30.0,-30.0
8.7915,370,27273,135.64,5828,49.61,1.44,28,43,0.0235,0.0097,-30.0,-30.0
8.8917,370,25641,135.45,5814,49.61,1.48,28,43,0.0221,0.0086,-30.0,-30.0
8.992,370,13043,137.62,5857,49.59,1.48,28,43,0.0226,0.0108,-30.0,-30.0
9.0922,370,30303,137.15,5828,49.59,1.51,28,44,0.0223,0.0109,-30.0,-30.0
9.1924,370,19737,139.1,5785,49.61,1.51,28,44,0.023,0.0098,-30.0,-30.0
9.2926,370,31915,138.38,5828,49.61,1.51,28,44,0.0221,0.0099,-30.0,-30.0
9.3929,370,53571,138.42,5814,49.59,1.48,29,44,0.0231,0.0112,-30.0,-30.0
9.4932,370,34884,139.99,5828,49.59,1.51,28,44,0.0225,0.0103,-30.0,-30.0
9.5934,370,30612,140.08,5828,49.61,1.51,28,44,0.0224,0.0125,-30.0,-30.0
9.6936,370,38961,139.52,5814,49.6,1.48,28,44,0.0219,0.0092,-30.0,-30.0
9.7938,370,43478,139.36,5828,49.6,1.51,28,44,0.0215,0.0101,-30.0,-30.0
9.8941,370,27027,138.23,5857,49.6,1.48,29,44,0.0224,0.0111,-30.0,-30.0
9.9943,370,17341,138.08,5800,49.61,1.44,28,44,0.0244,0.009,-30.0,-30.0
10.0946,444,7653,138.27,6085,49.54,1.57,28,44,0.0247,0.0107,-30.0,-30.0
10.1948,444,36585,139.12,6928,49.51,1.96,29,44,0.022,0.0097,-30.0,-30.0
10.2957,444,32967,150.62,6957,49.56,2.12,29,44,0.022,0.0103,-30.0,-30.0
10.396,444,25862,180.47,6985,49.56,2.28,28,44,0.0239,0.0092,-30.0,-30.0
10.4962,444,20000,198.67,6971,49.57,2.35,29,44,0.0227,0.0107,-30.0,-30.0
10.5965,444,20979,197.74,6985,49.56,2.09,28,44,0.0239,0.0106,-30.0,-30.0
10.6967,444,31579,197.22,6985,49.55,2.12,28,44,0.0228,0.011,-30.0,-30.0
10.797,444,28302,198.99,7014,49.55,2.22,29,44,0.0236,0.0106,-30.0,-30.0
10.8973,461,20408,198.67,6971,49.55,2.22,29,44,0.0219,0.012,-30.0,-30.0
10.9975,461,20548,198.77,7257,49.51,2.35,29,44,0.0218,0.009,-30.0,-30.0
11.0978,461,22727,198.08,7200,49.53,2.31,29,44,0.0236,0.0103,-30.0,-30.0
11.198,461,37500,206.2,7271,49.55,2.35,29,45,0.0238,0.0103,-30.0,-30.0
11.2983,461,31250,212.02,7271,49.54,2.31,29,45,0.0232,0.01,-30.0,-30.0
11.3987,461,30928,212.0,7214,49.55,2.22,29,45,0.0221,0.0108,-30.0,-30.0
11.499,461,32967,210.29,7257,49.52,2.18,30,45,0.0215,0.0102,-30.0,-30.0
11.5992,461,40541,208.02,7228,49.56,2.09,29,45,0.0229,0.0102,-30.0,-30.0
11.6995,484,23256,212.85,7400,49.48,2.15,29,45,0.0236,0.0088,-30.0,-30.0
11.7998,484,28037,219.66,7614,49.5,2.31,29,45,0.0223,0.0097,-30.0,-30.0
11.9,484,32609,225.75,7657,49.55,2.35,30,45,0.0226,0.0099,-30.0,-30.0
12.0003,484,18750,231.9,7614,49.51,2.44,29,45,0.0243,0.011,-30.0,-30.0
12.1005,484,19355,235.8,7585,49.54,2.47,29,45,0.0236,0.0109,-30.0,-30.0
12.2007,484,29412,235.85,7614,49.53,2.35,30,46,0.0225,0.0104,-30.0,-30.0
12.3011,512,22059,233.94,7600,49.53,2.35,30,46,0.0239,0.0111,-30.0,-30.0
12.4014,512,19481,233.8,8000,49.46,2.54,29,46,0.0229,0.0107,-30.0,-30.0
12.5016,512,25000,237.65,8042,49.51,2.6,30,46,0.0218,0.0088,-30.0,-30.0
12.6018,512,21898,254.08,8028,49.51,2.67,30,46,0.0226,0.0086,-30.0,-30.0
12.7021,512,21429,266.79,8114,49.53,2.7,29,46,0.0234,0.0098,-30.0,-30.0
12.8023,512,35294,270.02,8042,49.49,2.64,30,46,0.0222,0.0112,-30.0,-30.0
12.9025,512,19868,270.62,8014,49.51,2.64,30,46,0.0244,0.0107,-30.0,-30.0
13.0028,512,17647,272.46,8028,49.49,2.6,30,46,0.0244,0.0121,-30.0,-30.0
13.103,541,15075,262.5,8285,49.45,2.73,30,46,0.0225,0.008,-30.0,-30.0
13.2033,541,28571,264.99,8442,49.48,2.83,29,46,0.0221,0.0095,-30.0,-30.0
13.3036,541,34091,284.5,8500,49.46,2.92,30,46,0.0234,0.0106,-30.0,-30.0
13.4042,541,16949,302.53,8571,49.49,2.99,30,46,0.0233,0.0104,-30.0,-30.0
13.5045,541,20690,307.34,8542,49.49,3.05,30,46,0.0245,0.0093,-30.0,-30.0
13.6047,541,15873,309.79,8485,49.47,2.99,30,46,0.0222,0.0092,-30.0,-30.0
13.7049,541,18868,308.54,8457,49.47,2.99,30,46,0.024,0.0105,-30.0,-30.0
13.8051,541,14563,307.86,8500,49.46,2.99,30,46,0.0229,0.0101,-30.0,-30.0
13.9054,541,22388,307.44,8500,49.48,2.99,30,46,0.0232,0.0092,-30.0,-30.0
14.0057,541,37975,310.44,8400,49.49,2.99,30,46,0.0223,0.0113,-30.0,-30.0
14.1059,541,23077,310.48,8500,49.44,3.05,30,46,0.0226,0.0111,-30.0,-30.0
14.2062,541,21583,313.67,8471,49.47,3.05,30,47,0.0242,0.0102,-30.0,-30.0
14.3066,575,15873,314.2,8885,49.41,3.31,30,47,0.0239,0.0114,-30.0,-30.0
14.4068,575,17241,316.07,8957,49.41,3.44,30,47,0.0234,0.01,-30.0,-30.0
14.5071,575,21429,330.78,8971,49.42,3.5,30,47,0.0219,0.0105,-30.0,-30.0
14.6073,575,50847,347.02,8971,49.43,3.57,30,47,0.0226,0.0108,-30.0,-30.0
14.7075,575,14851,346.88,8957,49.4,3.6,30,47,0.0234,0.0114,-30.0,-30.0
14.8077,575,28846,349.47,8971,49.42,3.5,30,47,0.0227,0.0119,-30.0,-30.0
14.9079,575,41096,352.53,8971,49.41,3.5,30,47,0.0229,0.0099,-30.0,-30.0
15.0082,575,16949,351.29,8842,49.4,3.57,30,47,0.0238,0.0106,-30.0,-30.0
15.1084,575,10490,350.68,8971,49.44,3.6,30,47,0.0228,0.0109,-30.0,-30.0
15.2087,455,8174,347.88,7971,49.64,3.31,30,48,0.0232,0.0119,-30.0,-30.0
15.3089,455,30612,348.73,7271,49.58,2.76,30,48,0.0226,0.0112,-30.0,-30.0
15.4092,455,22556,326.37,7185,49.51,2.44,30,48,0.0223,0.0111,-30.0,-30.0
15.5094,455,24390,216.79,7200,49.53,1.96,30,48,0.0227,0.0128,-30.0,-30.0
15.6096,455,37975,212.15,7185,49.53,1.67,30,48,0.0217,0.0101,-30.0,-30.0
15.7099,455,19868,211.94,7185,49.51,1.96,30,48,0.022,0.0099,-30.0,-30.0
15.8101,387,27523,212.07,6300,49.64,1.77,30,48,0.0249,0.0102,-30.0,-30.0
15.9103,387,23437,208.71,6100,49.56,1.67,30,48,0.0239,0.011,-30.0,-30.0
16.0106,387,19868,184.16,6142,49.57,1.54,30,48,0.0221,0.0106,-30.0,-30.0
16.1116,387,29703,163.47,6171,49.57,1.41,30,48,0.0234,0.0111,-30.0,-30.0
16.2119,387,32967,159.66,6114,49.58,1.44,30,48,0.0243,0.0115,-30.0,-30.0
16.3121,324,35294,159.02,5728,49.64,1.51,30,49,0.0237,0.0104,-30.0,-30.0
16.4124,324,29412,158.61,5200,49.61,1.32,30,49,0.0244,0.0088,-30.0,-30.0
16.5126,324,30303,140.43,5142,49.59,1.19,30,49,0.0222,0.0108,-30.0,-30.0
16.6128,324,23077,115.54,5157,49.59,1.12,30,49,0.0235,0.0113,-30.0,-30.0
16.713,324,34091,108.67,5142,49.59,1.09,30,49,0.0231,0.0108,-30.0,-30.0
16.8133,324,42254,107.77,5157,49.6,1.19,30,49,0.023,0.0107,-30.0,-30.0
16.9135,205,27778,110.23,4514,49.63,1.15,30,49,0.022,0.0102,-30.0,-30.0
17.0138,205,31250,111.71,3200,49.67,0.93,30,49,0.0226,0.0108,-30.0,-30.0
17.114,205,41096,93.98,3185,49.66,0.64,30,49,0.0229,0.0123,-30.0,-30.0
17.2142,205,41667,80.93,3128,49.64,0.48,30,49,0.0214,0.0104,-30.0,-30.0
17.3145,205,37037,58.1,3128,49.64,0.45,30,49,0.0209,0.0109,-30.0,-30.0
17.4147,205,10239,-28.95,3128,49.65,0.48,30,49,0.0263,0.0142,-30.0,-30.0
17.5149,205,20690,-60.94,3128,49.65,0.51,30,49,0.0227,0.0135,-30.0,-30.0
17.6151,205,22556,-55.17,3114,49.65,0.54,30,49,0.024,0.0117,-30.0,-30.0
17.7154,205,21429,-54.94,3114,49.65,0.54,30,49,0.0235,0.0146,-30.0,-30.0
17.8156,205,20979,-54.84,3114,49.65,0.51,30,49,0.0232,0.0147,-30.0,-30.0
17.9158,205,41096,-55.02,3114,49.65,0.54,30,49,0.0212,0.0126,-30.0,-30.0
18.0161,205,43478,-55.1,3114,49.65,0.51,30,49,0.022,0.0126,-30.0,-30.0
18.1164,205,52632,-55.07,3114,49.65,0.51,30,49,0.0214,0.0128,-30.0,-30.0
18.2166,205,41667,-55.12,3114,49.65,0.54,30,49,0.0214,0.0106,-30.0,-30.0
18.3168,205,32967,-55.12,3114,49.65,0.51,30,49,0.0226,0.0132,-30.0,-30.0
18.4172,205,19108,-55.11,3114,49.65,0.51,30,49,0.0241,0.0119,-30.0,-30.0
18.5174,0,15707,-55.08,3085,49.65,0.51,30,49,0.024,0.0135,-30.0,-30.0
18.6177,0,33708,-55.15,0,49.66,0.35,30,49,0.0222,0.013,-30.0,-30.0
18.7179,0,24590,-55.68,0,49.68,0.16,30,49,0.0208,0.0126,-30.0,-30.0
18.8181,0,43478,-55.29,0,49.68,0.09,31,49,0.021,0.0131,-30.0,-30.0
18.9184,0,29703,-55.23,0,49.68,0.09,30,49,0.0215,0.0138,-30.0,-30.0
19.0195,0,27523,-55.31,0,49.7,0.09,30,49,0.0217,0.0126,-30.0,-30.0
19.1197,0,43478,-55.38,0,49.68,0.09,30,49,0.0219,0.014,-30.0,-30.0
19.2199,0,37500,-55.34,0,49.7,0.09,30,49,0.0214,0.0126,-30.0,-30.0
19.3202,0,21277,-55.42,0,49.7,0.09,30,49,0.0212,0.0118,-30.0,-30.0
19.4204,0,37975,-55.42,0,49.7,0.09,30,49,0.0211,0.0133,-30.0,-30.0
19.5206,0,34884,-55.32,0,49.7,0.09,30,49,0.0209,0.0127,-30.0,-30.0
19.6208,0,42254,-55.46,0,49.7,0.09,30,49,0.0209,0.0137,-30.0,-30.0
19.7211,0,22222,-55.43,0,49.7,0.09,30,49,0.0208,0.013,-30.0,-30.0
19.8213,0,32609,-55.46,0,49.7,0.09,30,49,0.0211,0.0128,-30.0,-30.0
19.9215,0,32967,-55.58,0,49.7,0.09,30,49,0.0215,0.0135,-30.0,-30.0
20.0218,0,26316,-55.55,0,49.7,0.09,30,49,0.0216,0.0138,-30.0,-30.0
20.1221,0,29703,-55.41,0,49.7,0.09,30,49,0.0216,0.0132,-30.0,-30.0
20.2223,0,30928,-55.52,0,49.7,0.09,30,49,0.0209,0.0135,-30.0,-30.0
20.3225,0,30928,-55.38,0,49.7,0.09,30,49,0.0211,0.0135,-30.0,-30.0
20.4227,0,40541,-55.56,0,49.7,0.09,30,49,0.0201,0.0125,-30.0,-30.0
20.523,0,22388,-55.56,0,49.7,0.09,30,49,0.0213,0.013,-30.0,-30.0
20.6232,0,28302,-55.52,0,49.7,0.09,30,49,0.0221,0.0137,-30.0,-30.0
20.7234,0,50000,-55.61,0,49.7,0.09,30,49,0.0228,0.0135,-30.0,-30.0
20.8237,0,30303,-55.54,0,49.7,0.09,30,49,0.0213,0.0132,-30.0,-30.0
20.9239,0,17341,-55.51,0,49.7,0.09,30,49,0.0216,0.0144,-30.0,-30.0
21.0242,0,50847,-55.5,0,49.7,0.09,30,49,0.0214,0.0134,-30.0,-30.0
21.1245,0,33708,-55.46,0,49.7,0.09,30,49,0.0213,0.0137,-30.0,-30.0
21.2247,0,28302,-55.48,0,49.7,0.09,30,49,0.0217,0.0135,-30.0,-30.0
21.3249,0,37037,-55.45,0,49.7,0.09,30,49,0.0213,0.0137,-30.0,-30.0
21.4252,0,30000,-55.45,0,49.7,0.09,30,49,0.0215,0.0142,-30.0,-30.0
21.5254,0,30000,-55.52,0,49.7,0.09,30,49,0.022,0.0133,-30.0,-30.0
21.6257,0,25862,-55.5,0,49.7,0.09,30,49,0.022,0.0139,-30.0,-30.0
21.7259,0,23256,-55.42,0,49.7,0.09,30,49,0.0215,0.0135,-30.0,-30.0
21.8261,0,39474,-55.35,0,49.7,0.09,30,49,0.0215,0.0133,-30.0,-30.0
21.9278,0,32258,-55.24,0,49.7,0.09,30,49,0.021,0.0128,-30.0,-30.0
22.028,0,21277,-55.39,0,49.7,0.09,30,49,0.0227,0.0128,-30.0,-30.0
22.1282,0,24000,-55.36,0,49.7,0.09,30,49,0.0219,0.0139,-30.0,-30.0
22.2285,0,42857,-55.36,0,49.7,0.09,30,49,0.0204,0.0133,-30.0,-30.0
22.3287,0,26316,-55.35,0,49.7,0.09,30,49,0.0218,0.0133,-30.0,-30.0
22.429,0,42857,-55.33,0,49.7,0.09,30,49,0.0217,0.0136,-30.0,-30.0
22.5292,0,28302,-55.37,0,49.7,0.09,30,49,0.0219,0.0134,-30.0,-30.0
22.6294,0,40541,-55.44,0,49.7,0.09,30,49,0.0212,0.0137,-30.0,-30.0
22.7297,0,42254,-55.45,0,49.7,0.09,30,49,0.0209,0.0136,-30.0,-30.0
22.8299,0,40541,-55.49,0,49.7,0.09,30,49,0.0213,0.0137,-30.0,-30.0
22.9302,0,32609,-55.35,0,49.7,0.09,30,49,0.0212,0.0137,-30.0,-30.0
23.0306,0,43478,-55.3,0,49.7,0.09,30,49,0.0213,0.0136,-30.0,-30.0
23.1308,0,22222,-55.31,0,49.7,0.09,30,49,0.0207,0.0129,-30.0,-30.0
23.2311,0,36145,-55.33,0,49.7,0.09,30,49,0.0214,0.0129,-30.0,-30.0
23.3313,0,24590,-55.42,0,49.7,0.09,30,49,0.0214,0.0131,-30.0,-30.0
23.4315,0,36585,-55.42,0,49.7,0.09,30,49,0.0217,0.0138,-30.0,-30.0
23.5317,0,34483,-55.49,0,49.7,0.09,30,49,0.0212,0.0132,-30.0,-30.0
23.632,0,23256,-55.36,0,49.7,0.09,30,49,0.0217,0.0137,-30.0,-30.0
23.7322,0,27778,-55.48,0,49.7,0.09,30,49,0.0199,0.0131,-30.0,-30.0
23.8324,0,31250,-55.52,0,49.7,0.09,30,49,0.0211,0.0131,-30.0,-30.0
23.9327,0,31915,-55.43,0,49.71,0.09,30,49,0.0207,0.0132,-30.0,-30.0
24.0329,0,21127,-55.36,0,49.71,0.09,30,49,0.0216,0.0131,-30.0,-30.0
24.1332,0,32609,-55.37,0,49.72,0.09,30,49,0.0215,0.0135,-30.0,-30.0
24.2334,0,19868,-55.43,0,49.72,0.09,30,49,0.0199,0.013,-30.0,-30.0
24.3337,0,25641,-55.4,0,49.72,0.09,30,49,0.0209,0.0138,-30.0,-30.0
24.4339,0,27273,-55.39,0,49.72,0.09,30,49,0.0213,0.0134,-30.0,-30.0
24.5342,0,34091,-55.43,0,49.72,0.09,30,49,0.0206,0.0128,-30.0,-30.0
24.6344,0,28846,-55.38,0,49.72,0.09,30,49,0.0212,0.013,-30.0,-30.0
24.7346,0,33333,-55.34,0,49.72,0.09,30,49,0.021,0.0128,-30.0,-30.0
24.8354,0,35294,-55.44,0,49.72,0.09,30,49,0.0211,0.014,-30.0,-30.0
24.9357,0,36585,-55.42,0,49.72,0.09,30,49,0.0212,0.0134,-30.0,-30.0
25.0361,0,42254,-55.37,0,49.72,0.09,30,49,0.0208,0.0134,-30.0,-30.0
25.1363,0,47619,-55.35,0,49.72,0.09,30,49,0.0216,0.0124,-30.0,-30.0
25.2365,0,50847,-55.46,0,49.72,0.09,30,49,0.0219,0.0136,-30.0,-30.0
25.3368,0,44776,-55.44,0,49.72,0.09,30,49,0.0218,0.0133,-30.0,-30.0
25.4371,0,26786,-55.43,0,49.72,0.09,30,49,0.0216,0.0132,-30.0,-30.0
25.5373,0,28037,-55.42,0,49.72,0.09,30,49,0.0218,0.0135,-30.0,-30.0
25.6375,0,28302,-55.37,0,49.72,0.09,30,49,0.0215,0.0136,-30.0,-30.0
25.7378,0,28846,-55.33,0,49.72,0.09,30,49,0.0207,0.0127,-30.0,-30.0
25.838,0,31915,-55.43,0,49.72,0.09,30,49,0.0208,0.0131,-30.0,-30.0
25.9385,0,47619,-55.54,0,49.72,0.09,30,49,0.0216,0.0126,-30.0,-30.0
26.0387,0,28037,-55.38,0,49.72,0.09,30,49,0.0218,0.0131,-30.0,-30.0
26.139,0,26786,-55.32,0,49.72,0.09,30,49,0.0207,0.0129,-30.0,-30.0
26.2392,0,40000,-55.41,0,49.72,0.09,30,49,0.0209,0.0133,-30.0,-30.0
26.3394,0,42254,-55.34,0,49.72,0.09,30,49,0.0208,0.0128,-30.0,-30.0
26.4397,0,37975,-55.43,0,49.72,0.09,30,49,0.0214,0.0122,-30.0,-30.0
26.5398,0,31579,-55.52,0,49.72,0.09,30,49,0.0211,0.0126,-30.0,-30.0
26.6402,0,41096,-55.39,0,49.72,0.09,30,49,0.0209,0.0127,-30.0,-30.0
26.7404,0,45455,-55.32,0,49.72,0.09,30,49,0.0211,0.0129,-30.0,-30.0
26.8406,0,34483,-55.54,0,49.72,0.09,30,49,0.0209,0.0134,-30.0,-30.0
26.9409,0,35294,-55.6,0,49.72,0.09,30,49,0.0202,0.0125,-30.0,-30.0
27.0411,0,23256,-55.69,0,49.72,0.09,30,49,0.0217,0.0144,-30.0,-30.0
27.1414,0,36145,-55.58,0,49.72,0.09,30,49,0.0207,0.0133,-30.0,-30.0
27.2417,0,31579,-55.48,0,49.72,0.09,30,49,0.0221,0.0139,-30.0,-30.0
27.3419,0,40000,-55.43,0,49.72,0.09,30,49,0.0203,0.0126,-30.0,-30.0
27.4421,0,45455,-55.53,0,49.72,0.09,30,49,0.0212,0.0131,-30.0,-30.0
27.5423,0,37500,-55.43,0,49.72,0.09,30,49,0.0206,0.0135,-30.0,-30.0
27.6425,0,25210,-55.53,0,49.72,0.09,30,49,0.0216,0.0125,-30.0,-30.0
27.7433,0,30612,-55.48,0,49.72,0.09,30,49,0.0206,0.0125,-30.0,-30.0
27.8435,0,34483,-55.49,0,49.72,0.09,30,49,0.0213,0.0125,-30.0,-30.0
27.9439,0,35714,-55.46,0,49.72,0.09,30,49,0.0212,0.0127,-30.0,-30.0
28.0442,0,41096,-55.55,0,49.72,0.09,30,49,0.0211,0.0128,-30.0,-30.0
28.1444,0,45455,-55.47,0,49.72,0.09,30,49,0.0215,0.0129,-30.0,-30.0
28.2446,0,22727,-55.4,0,49.72,0.09,30,49,0.0208,0.0139,-30.0,-30.0
28.3449,0,39474,-55.38,0,49.72,0.09,30,49,0.0214,0.0138,-30.0,-30.0
28.4451,0,25641,-55.39,0,49.72,0.09,30,49,0.022,0.0133,-30.0,-30.0
28.5453,0,28846,-55.44,0,49.72,0.09,30,49,0.0215,0.0121,-30.0,-30.0
28.6455,0,36585,-55.28,0,49.72,0.09,30,49,0.0219,0.0129,-30.0,-30.0
28.7457,0,41096,-55.42,0,49.72,0.09,30,49,0.0215,0.0127,-30.0,-30.0
28.8459,0,25424,-55.6,0,49.72,0.09,30,49,0.0214,0.0137,-30.0,-30.0
28.9463,0,21898,-55.61,0,49.72,0.09,30,49,0.0212,0.0138,-30.0,-30.0
29.0465,0,29126,-55.47,0,49.72,0.09,30,49,0.0217,0.0139,-30.0,-30.0
29.1468,0,38462,-55.48,0,49.72,0.09,30,49,0.0224,0.0136,-30.0,-30.0
29.247,0,27273,-55.53,0,49.72,0.09,30,49,0.0211,0.0143,-30.0,-30.0
29.3472,0,44118,-55.43,0,49.72,0.09,30,49,0.0218,0.0134,-30.0,-30.0
29.4474,0,19737,-55.43,0,49.72,0.09,30,49,0.0219,0.0125,-30.0,-30.0
29.5477,0,39474,-55.3,0,49.72,0.09,30,49,0.0206,0.013,-30.0,-30.0
29.6479,0,20833,-55.47,0,49.72,0.09,30,49,0.0219,0.0131,-30.0,-30.0
29.7484,0,37975,-55.47,0,49.72,0.09,30,49,0.021,0.0132,-30.0,-30.0
29.8486,0,39474,-55.29,0,49.72,0.09,30,49,0.021,0.0134,-30.0,-30.0
29.9489,0,37037,-55.34,0,49.72,0.09,30,49,0.0229,0.0138,-30.0,-30.0
30.0493,0,36585,-55.37,0,49.72,0.09,30,49,0.0216,0.0135,-30.0,-30.0
30.1496,0,30303,-55.61,0,49.72,0.09,30,49,0.0212,0.0131,-30.0,-30.0
30.2498,0,36145,-55.6,0,49.72,0.09,30,49,0.0217,0.0129,-30.0,-30.0
30.35,0,38462,-55.33,0,49.72,0.09,30,49,0.0214,0.0132,-30.0,-30.0
30.4502,0,35294,-55.37,0,49.72,0.09,30,49,0.0215,0.0133,-30.0,-30.0
30.5504,0,30000,-55.45,0,49.72,0.09,30,49,0.0211,0.0141,-30.0,-30.0
30.6511,0,26549,-55.57,0,49.72,0.09,30,49,0.0211,0.0124,-30.0,-30.0
30.7514,0,28846,-55.59,0,49.72,0.09,30,49,0.0219,0.0127,-30.0,-30.0
30.8518,0,38961,-55.67,0,49.72,0.09,30,49,0.021,0.0128,-30.0,-30.0
30.952,0,34091,-55.65,0,49.72,0.09,30,49,0.0208,0.0133,-30.0,-30.0
31.0523,0,32967,-55.69,0,49.72,0.09,30,49,0.0214,0.013,-30.0,-30.0
31.1525,0,29412,-55.61,0,49.72,0.09,30,49,0.0204,0.0124,-30.0,-30.0
31.2527,0,25210,-55.65,0,49.72,0.09,30,49,0.0215,0.0132,-30.0,-30.0
31.3529,0,46875,-55.63,0,49.72,0.09,30,49,0.0212,0.0133,-30.0,-30.0
31.4532,0,27778,-55.61,0,49.72,0.09,30,49,0.0208,0.0134,-30.0,-30.0
31.5534,0,20548,-55.76,0,49.72,0.09,30,49,0.0217,0.0131,-30.0,-30.0
31.6536,0,50847,-55.69,0,49.72,0.09,30,49,0.0207,0.0141,-30.0,-30.0
31.7539,0,30612,-55.69,0,49.72,0.09,30,49,0.0208,0.0129,-30.0,-30.0
31.8542,0,35714,-55.67,0,49.72,0.09,30,49,0.0216,0.0125,-30.0,-30.0
31.9544,0,30303,-55.5,0,49.72,0.09,30,49,0.0209,0.0123,-30.0,-30.0
32.0547,0,32258,-55.6,0,49.72,0.09,30,49,0.0223,0.0125,-30.0,-30.0
32.1549,0,32609,-55.7,0,49.72,0.09,30,49,0.0211,0.0124,-30.0,-30.0
32.2551,0,21739,-55.61,0,49.72,0.09,30,49,0.0215,0.0133,-30.0,-30.0
32.3553,0,46154,-55.6,0,49.72,0.09,30,49,0.0206,0.0135,-30.0,-30.0
32.4556,0,38961,-55.46,0,49.72,0.09,30,49,0.0217,0.0121,-30.0,-30.0
32.5558,0,28302,-55.51,0,49.72,0.09,30,49,0.0213,0.0136,-30.0,-30.0
32.6562,0,34483,-55.65,0,49.72,0.09,30,49,0.0205,0.0131,-30.0,-30.0
32.7564,0,30000,-55.69,0,49.72,0.09,30,49,0.0218,0.013,-30.0,-30.0
32.8567,0,34483,-55.79,0,49.72,0.09,30,49,0.021,0.0125,-30.0,-30.0
32.9569,0,37037,-55.8,0,49.72,0.09,30,49,0.0206,0.0128,-30.0,-30.0
33.0572,0,25862,-55.78,0,49.72,0.09,30,49,0.0214,0.0128,-30.0,-30.0
33.1574,0,30612,-55.61,0,49.72,0.09,30,49,0.0208,0.0133,-30.0,-30.0
33.2576,0,38462,-55.66,0,49.72,0.09,30,49,0.0214,0.0133,-30.0,-30.0
33.3579,0,34884,-55.7,0,49.72,0.09,30,49,0.021,0.0135,-30.0,-30.0
33.4581,0,28846,-55.71,0,49.72,0.09,30,49,0.0215,0.0133,-30.0,-30.0
33.5594,0,28571,-55.61,0,49.72,0.09,30,49,0.0217,0.0128,-30.0,-30.0
33.6596,0,20134,-55.58,0,49.72,0.09,30,49,0.022,0.0139,-30.0,-30.0
33.7599,0,24793,-55.58,0,49.72,0.09,30,49,0.0211,0.0134,-30.0,-30.0
33.8601,0,38961,-55.69,0,49.72,0.09,30,49,0.021,0.0132,-30.0,-30.0
33.9603,0,25862,-55.5,0,49.72,0.09,30,49,0.0208,0.012,-30.0,-30.0
34.0606,0,30612,-55.58,0,49.72,0.09,30,49,0.0218,0.0133,-30.0,-30.0
34.1608,0,32258,-55.59,0,49.72,0.09,30,49,0.0216,0.0128,-30.0,-30.0
34.261,0,47619,-55.61,0,49.72,0.09,30,49,0.0221,0.0135,-30.0,-30.0
34.3613,0,38961,-55.68,0,49.72,0.09,30,49,0.0206,0.0131,-30.0,-30.0
34.4615,0,25424,-55.6,0,49.72,0.09,30,49,0.0215,0.0131,-30.0,-30.0
34.5617,0,46154,-55.49,0,49.72,0.09,30,49,0.0217,0.0129,-30.0,-30.0
34.6621,0,23256,-55.62,0,49.72,0.09,30,49,0.0217,0.0124,-30.0,-30.0
34.7624,0,33333,-55.58,0,49.72,0.09,30,49,0.022,0.0128,-30.0,-30.0
34.8626,0,22059,-55.57,0,49.72,0.09,30,49,0.0212,0.0132,-30.0,-30.0
34.9629,0,38961,-55.34,0,49.72,0.09,30,49,0.0213,0.0132,-30.0,-30.0
35.0631,0,31579,-55.28,0,49.72,0.09,30,49,0.0216,0.0122,-30.0,-30.0
